<?xml version="1.0"?>
<opencv_storage>
<!-- Created using Computer Vision System Toolbox(tm) for MATLAB(R) -->
<!-- Version 9.0.0.341360 (R2016a) -->
<!-- Compatible with OpenCV 2.4 -->
<cascade>
  <stageType>BOOST</stageType>
  <featureType>HOG</featureType>
  <height>32</height>
  <width>51</width>
  <stageParams>
    <boostType>GAB</boostType>
    <minHitRate>8.0000001192092896e-01</minHitRate>
    <maxFalseAlarm>2.0000000298023224e-01</maxFalseAlarm>
    <weightTrimRate>9.4999999999999996e-01</weightTrimRate>
    <maxDepth>1</maxDepth>
    <maxWeakCount>100</maxWeakCount></stageParams>
  <featureParams>
    <maxCatCount>0</maxCatCount>
    <featSize>36</featSize></featureParams>
  <stageNum>6</stageNum>
  <stages>
    <!-- stage 0 -->
    <_>
      <maxWeakCount>2</maxWeakCount>
      <stageThreshold>-1.4644802808761597e+00</stageThreshold>
      <weakClassifiers>
        <_>
          <internalNodes>
            0 -1 1 2.2882482409477234e-01</internalNodes>
          <leafValues>
            -9.8347109556198120e-01 1.</leafValues></_>
        <_>
          <internalNodes>
            0 -1 11 3.3661410212516785e-02</internalNodes>
          <leafValues>
            -1. -4.8100915551185608e-01</leafValues></_></weakClassifiers></_>
    <!-- stage 1 -->
    <_>
      <maxWeakCount>3</maxWeakCount>
      <stageThreshold>-1.5214530229568481e+00</stageThreshold>
      <weakClassifiers>
        <_>
          <internalNodes>
            0 -1 6 1.2590993940830231e-01</internalNodes>
          <leafValues>
            -9.8675495386123657e-01 1.</leafValues></_>
        <_>
          <internalNodes>
            0 -1 12 7.7783226966857910e-02</internalNodes>
          <leafValues>
            -9.5213842391967773e-01 5.0810087472200394e-02</leafValues></_>
        <_>
          <internalNodes>
            0 -1 4 5.7187914848327637e-02</internalNodes>
          <leafValues>
            -8.9784270524978638e-01 4.1744038462638855e-01</leafValues></_></weakClassifiers></_>
    <!-- stage 2 -->
    <_>
      <maxWeakCount>2</maxWeakCount>
      <stageThreshold>-9.5831191539764404e-01</stageThreshold>
      <weakClassifiers>
        <_>
          <internalNodes>
            0 -1 9 1.6768574714660645e-01</internalNodes>
          <leafValues>
            -9.9000000953674316e-01 0.</leafValues></_>
        <_>
          <internalNodes>
            0 -1 7 5.6007923558354378e-03</internalNodes>
          <leafValues>
            1.7742639780044556e-01 -9.5831191539764404e-01</leafValues></_></weakClassifiers></_>
    <!-- stage 3 -->
    <_>
      <maxWeakCount>3</maxWeakCount>
      <stageThreshold>-1.7815383672714233e+00</stageThreshold>
      <weakClassifiers>
        <_>
          <internalNodes>
            0 -1 8 4.9998235702514648e-01</internalNodes>
          <leafValues>
            -9.8412698507308960e-01 1.</leafValues></_>
        <_>
          <internalNodes>
            0 -1 10 3.9618313312530518e-02</internalNodes>
          <leafValues>
            -9.7005939483642578e-01 -1.4909505844116211e-01</leafValues></_>
        <_>
          <internalNodes>
            0 -1 5 2.0687974989414215e-02</internalNodes>
          <leafValues>
            -9.7036004066467285e-01 1.7264801263809204e-01</leafValues></_></weakClassifiers></_>
    <!-- stage 4 -->
    <_>
      <maxWeakCount>3</maxWeakCount>
      <stageThreshold>-1.1380358934402466e+00</stageThreshold>
      <weakClassifiers>
        <_>
          <internalNodes>
            0 -1 2 2.2094979882240295e-01</internalNodes>
          <leafValues>
            -9.8412698507308960e-01 1.</leafValues></_>
        <_>
          <internalNodes>
            0 -1 5 2.0827755331993103e-02</internalNodes>
          <leafValues>
            7.5484687089920044e-01 -9.4411134719848633e-01</leafValues></_>
        <_>
          <internalNodes>
            0 -1 13 5.5816568434238434e-02</internalNodes>
          <leafValues>
            -9.0875577926635742e-01 7.9166036844253540e-01</leafValues></_></weakClassifiers></_>
    <!-- stage 5 -->
    <_>
      <maxWeakCount>2</maxWeakCount>
      <stageThreshold>-6.1514526605606079e-01</stageThreshold>
      <weakClassifiers>
        <_>
          <internalNodes>
            0 -1 3 5.7720862329006195e-02</internalNodes>
          <leafValues>
            -9.4782608747482300e-01 1.</leafValues></_>
        <_>
          <internalNodes>
            0 -1 0 3.0951980501413345e-02</internalNodes>
          <leafValues>
            -1. 3.3268082141876221e-01</leafValues></_></weakClassifiers></_></stages>
  <features>
    <_>
      <rect>
        0 8 8 8 24</rect></_>
    <_>
      <rect>
        0 16 8 8 5</rect></_>
    <_>
      <rect>
        4 8 8 8 22</rect></_>
    <_>
      <rect>
        4 8 8 8 34</rect></_>
    <_>
      <rect>
        8 4 8 8 11</rect></_>
    <_>
      <rect>
        8 4 8 8 16</rect></_>
    <_>
      <rect>
        12 4 8 8 5</rect></_>
    <_>
      <rect>
        20 4 8 8 11</rect></_>
    <_>
      <rect>
        20 12 8 8 13</rect></_>
    <_>
      <rect>
        28 4 8 8 4</rect></_>
    <_>
      <rect>
        28 8 8 8 27</rect></_>
    <_>
      <rect>
        32 8 8 8 2</rect></_>
    <_>
      <rect>
        12 4 16 8 23</rect></_>
    <_>
      <rect>
        8 0 16 16 18</rect></_></features></cascade>
</opencv_storage>
